digraph Tree {
node [shape=box, style="filled, rounded", color="black", fontname=helvetica] ;
edge [fontname=helvetica] ;
0 [label="X[2] <= 2.35\ngini = 0.427\nsamples = 120\nvalue = [83, 37]", fillcolor="#f1b991"] ;
1 [label="gini = 0.0\nsamples = 39\nvalue = [39, 0]", fillcolor="#e58139"] ;
0 -> 1 [labeldistance=2.5, labelangle=45, headlabel="True"] ;
2 [label="X[3] <= 1.75\ngini = 0.496\nsamples = 81\nvalue = [44, 37]", fillcolor="#fbebe0"] ;
0 -> 2 [labeldistance=2.5, labelangle=-45, headlabel="False"] ;
3 [label="X[2] <= 4.95\ngini = 0.18\nsamples = 40\nvalue = [4, 36]", fillcolor="#4fa8e8"] ;
2 -> 3 ;
4 [label="X[3] <= 1.65\ngini = 0.056\nsamples = 35\nvalue = [1, 34]", fillcolor="#3fa0e6"] ;
3 -> 4 ;
5 [label="gini = 0.0\nsamples = 34\nvalue = [0, 34]", fillcolor="#399de5"] ;
4 -> 5 ;
6 [label="gini = 0.0\nsamples = 1\nvalue = [1, 0]", fillcolor="#e58139"] ;
4 -> 6 ;
7 [label="X[3] <= 1.55\ngini = 0.48\nsamples = 5\nvalue = [3, 2]", fillcolor="#f6d5bd"] ;
3 -> 7 ;
8 [label="gini = 0.0\nsamples = 2\nvalue = [2, 0]", fillcolor="#e58139"] ;
7 -> 8 ;
9 [label="X[2] <= 5.45\ngini = 0.444\nsamples = 3\nvalue = [1, 2]", fillcolor="#9ccef2"] ;
7 -> 9 ;
10 [label="gini = 0.0\nsamples = 2\nvalue = [0, 2]", fillcolor="#399de5"] ;
9 -> 10 ;
11 [label="gini = 0.0\nsamples = 1\nvalue = [1, 0]", fillcolor="#e58139"] ;
9 -> 11 ;
12 [label="X[2] <= 4.85\ngini = 0.048\nsamples = 41\nvalue = [40, 1]", fillcolor="#e6843e"] ;
2 -> 12 ;
13 [label="X[0] <= 5.95\ngini = 0.5\nsamples = 2\nvalue = [1, 1]", fillcolor="#ffffff"] ;
12 -> 13 ;
14 [label="gini = 0.0\nsamples = 1\nvalue = [0, 1]", fillcolor="#399de5"] ;
13 -> 14 ;
15 [label="gini = 0.0\nsamples = 1\nvalue = [1, 0]", fillcolor="#e58139"] ;
13 -> 15 ;
16 [label="gini = 0.0\nsamples = 39\nvalue = [39, 0]", fillcolor="#e58139"] ;
12 -> 16 ;
}